digraph Tree {
node [shape=box] ;
0 [label="X[27] <= 0.142\ngini = 0.461\nsamples = 455\nvalue = [291, 164]"] ;
1 [label="X[23] <= 957.45\ngini = 0.15\nsamples = 305\nvalue = [280, 25]"] ;
0 -> 1 [labeldistance=2.5, labelangle=45, headlabel="True"] ;
2 [label="X[13] <= 35.435\ngini = 0.073\nsamples = 288\nvalue = [277, 11]"] ;
1 -> 2 ;
3 [label="X[23] <= 785.75\ngini = 0.029\nsamples = 270\nvalue = [266, 4]"] ;
2 -> 3 ;
4 [label="gini = 0.008\nsamples = 247\nvalue = [246, 1]"] ;
3 -> 4 ;
5 [label="gini = 0.227\nsamples = 23\nvalue = [20, 3]"] ;
3 -> 5 ;
6 [label="gini = 0.475\nsamples = 18\nvalue = [11, 7]"] ;
2 -> 6 ;
7 [label="gini = 0.291\nsamples = 17\nvalue = [3, 14]"] ;
1 -> 7 ;
8 [label="gini = 0.136\nsamples = 150\nvalue = [11, 139]"] ;
0 -> 8 [labeldistance=2.5, labelangle=-45, headlabel="False"] ;
}